//Numpy array shape [3, 3, 1, 8]
//Min -0.609375000000
//Max 0.601562500000
//Number of zeros 1

#ifndef W2_H_
#define W2_H_

#ifndef __SYNTHESIS__
weight2_t w2[72];
#else
weight2_t w2[72] = {-0.5468750, 0.4453125, 0.1718750, 0.3437500, -0.5078125, -0.5703125, -0.3203125, -0.4843750, 0.2968750, -0.0156250, 0.1250000, 0.4062500, 0.1796875, 0.2812500, -0.3906250, 0.0859375, 0.4453125, -0.4218750, 0.1718750, -0.2343750, 0.1875000, 0.0000000, 0.2187500, 0.5937500, 0.2890625, 0.3828125, -0.4453125, -0.3203125, 0.4843750, 0.1562500, -0.4765625, 0.5156250, 0.9687500, -1.0000000, -1.0000000, -0.5078125, 0.2109375, -0.2500000, -0.3125000, 0.2421875, -0.4609375, -0.3515625, -0.5000000, 0.3671875, -0.0937500, -0.5390625, 0.1328125, 0.1093750, -0.4296875, 0.2109375, 0.3359375, -0.2031250, 0.1562500, -0.3515625, -0.1718750, 0.3828125, -0.3828125, 0.0703125, -0.2187500, -0.0781250, 0.4921875, -0.1562500, -0.1171875, -0.3984375, 0.3359375, 0.2421875, 0.0625000, -0.3671875, 0.1015625, -0.5468750, 0.3984375, -0.0625000};
#endif

#endif
